digraph Tree {
node [shape=box, style="rounded", color="black", fontname=helvetica] ;
edge [fontname=helvetica] ;
0 [label="last_session_creation_time <= 1400620608.0\nmse = 0.1\nsamples = 5708\nvalue = 0.1"] ;
1 [label="last_session_creation_time <= 1399864384.0\nmse = 0.0\nsamples = 4924\nvalue = 0.0"] ;
0 -> 1 [labeldistance=2.5, labelangle=45, headlabel="True"] ;
2 [label="object_id <= 2.5\nmse = 0.0\nsamples = 4789\nvalue = 0.0"] ;
1 -> 2 ;
3 [label="mse = 0.0\nsamples = 1\nvalue = 1.0"] ;
2 -> 3 ;
4 [label="creation_time <= 5664.5\nmse = 0.0\nsamples = 4788\nvalue = 0.0"] ;
2 -> 4 ;
5 [label="last_session_creation_time <= 1379292480.0\nmse = 0.0\nsamples = 2424\nvalue = 0.0"] ;
4 -> 5 ;
6 [label="last_session_creation_time <= 1379013952.0\nmse = 0.0\nsamples = 2392\nvalue = 0.0"] ;
5 -> 6 ;
7 [label="last_session_creation_time <= 1373895296.0\nmse = 0.0\nsamples = 1628\nvalue = 0.0"] ;
6 -> 7 ;
8 [label="last_session_creation_time <= 1373100096.0\nmse = 0.0\nsamples = 1592\nvalue = 0.0"] ;
7 -> 8 ;
9 [label="org_id <= 321.5\nmse = 0.0\nsamples = 1557\nvalue = 0.0"] ;
8 -> 9 ;
10 [label="invited_by_user_id <= 9691.5\nmse = 0.0\nsamples = 1357\nvalue = 0.0"] ;
9 -> 10 ;
11 [label="invited_by_user_id <= 9670.5\nmse = 0.0\nsamples = 609\nvalue = 0.0"] ;
10 -> 11 ;
12 [label="creation_time <= 1319.0\nmse = 0.0\nsamples = 608\nvalue = 0.0"] ;
11 -> 12 ;
13 [label="last_session_creation_time <= 1349863744.0\nmse = 0.1\nsamples = 152\nvalue = 0.1"] ;
12 -> 13 ;
14 [label="last_session_creation_time <= 1347729984.0\nmse = 0.0\nsamples = 139\nvalue = 0.0"] ;
13 -> 14 ;
15 [label="mse = 0.0\nsamples = 131\nvalue = 0.0"] ;
14 -> 15 ;
16 [label="invited_by_user_id <= 6426.0\nmse = 0.2\nsamples = 8\nvalue = 0.2"] ;
14 -> 16 ;
17 [label="mse = 0.0\nsamples = 5\nvalue = 0.0"] ;
16 -> 17 ;
18 [label="org_id <= 16.5\nmse = 0.2\nsamples = 3\nvalue = 0.8"] ;
16 -> 18 ;
19 [label="mse = 0.0\nsamples = 1\nvalue = 0.0"] ;
18 -> 19 ;
20 [label="mse = 0.0\nsamples = 2\nvalue = 1.0"] ;
18 -> 20 ;
21 [label="last_session_creation_time <= 1351407424.0\nmse = 0.0\nsamples = 13\nvalue = 1.0"] ;
13 -> 21 ;
22 [label="invited_by_user_id <= 8087.5\nmse = 0.2\nsamples = 2\nvalue = 0.5"] ;
21 -> 22 ;
23 [label="mse = 0.0\nsamples = 1\nvalue = 0.0"] ;
22 -> 23 ;
24 [label="mse = 0.0\nsamples = 1\nvalue = 1.0"] ;
22 -> 24 ;
25 [label="mse = 0.0\nsamples = 11\nvalue = 1.0"] ;
21 -> 25 ;
26 [label="object_id <= 55.5\nmse = 0.0\nsamples = 456\nvalue = 0.0"] ;
12 -> 26 ;
27 [label="org_id <= 65.5\nmse = 0.2\nsamples = 3\nvalue = 0.5"] ;
26 -> 27 ;
28 [label="mse = 0.0\nsamples = 1\nvalue = 1.0"] ;
27 -> 28 ;
29 [label="mse = 0.0\nsamples = 2\nvalue = 0.0"] ;
27 -> 29 ;
30 [label="last_session_creation_time <= 1368261440.0\nmse = 0.0\nsamples = 453\nvalue = 0.0"] ;
26 -> 30 ;
31 [label="invited_by_user_id <= 9415.5\nmse = 0.0\nsamples = 368\nvalue = 0.0"] ;
30 -> 31 ;
32 [label="last_session_creation_time <= 1364713088.0\nmse = 0.0\nsamples = 361\nvalue = 0.0"] ;
31 -> 32 ;
33 [label="object_id <= 8759.5\nmse = 0.0\nsamples = 298\nvalue = 0.0"] ;
32 -> 33 ;
34 [label="mse = 0.0\nsamples = 232\nvalue = 0.0"] ;
33 -> 34 ;
35 [label="object_id <= 8824.0\nmse = 0.0\nsamples = 66\nvalue = 0.0"] ;
33 -> 35 ;
36 [label="mse = 0.0\nsamples = 1\nvalue = 1.0"] ;
35 -> 36 ;
37 [label="mse = 0.0\nsamples = 65\nvalue = 0.0"] ;
35 -> 37 ;
38 [label="last_session_creation_time <= 1364828032.0\nmse = 0.0\nsamples = 63\nvalue = 0.0"] ;
32 -> 38 ;
39 [label="mse = 0.0\nsamples = 2\nvalue = 1.0"] ;
38 -> 39 ;
40 [label="mse = 0.0\nsamples = 61\nvalue = 0.0"] ;
38 -> 40 ;
41 [label="invited_by_user_id <= 9457.0\nmse = 0.1\nsamples = 7\nvalue = 0.1"] ;
31 -> 41 ;
42 [label="mse = 0.0\nsamples = 1\nvalue = 1.0"] ;
41 -> 42 ;
43 [label="mse = 0.0\nsamples = 6\nvalue = 0.0"] ;
41 -> 43 ;
44 [label="creation_time <= 4625.0\nmse = 0.1\nsamples = 85\nvalue = 0.1"] ;
30 -> 44 ;
45 [label="object_id <= 5176.0\nmse = 0.2\nsamples = 12\nvalue = 0.6"] ;
44 -> 45 ;
46 [label="mse = 0.0\nsamples = 3\nvalue = 0.0"] ;
45 -> 46 ;
47 [label="invited_by_user_id <= 5123.0\nmse = 0.1\nsamples = 9\nvalue = 0.8"] ;
45 -> 47 ;
48 [label="mse = 0.0\nsamples = 6\nvalue = 1.0"] ;
47 -> 48 ;
49 [label="invited_by_user_id <= 5964.0\nmse = 0.2\nsamples = 3\nvalue = 0.3"] ;
47 -> 49 ;
50 [label="mse = 0.0\nsamples = 2\nvalue = 0.0"] ;
49 -> 50 ;
51 [label="mse = 0.0\nsamples = 1\nvalue = 1.0"] ;
49 -> 51 ;
52 [label="mse = 0.0\nsamples = 73\nvalue = 0.0"] ;
44 -> 52 ;
53 [label="mse = 0.0\nsamples = 1\nvalue = 1.0"] ;
11 -> 53 ;
54 [label="last_session_creation_time <= 1370578176.0\nmse = 0.0\nsamples = 748\nvalue = 0.0"] ;
10 -> 54 ;
55 [label="creation_time <= 277.5\nmse = 0.0\nsamples = 683\nvalue = 0.0"] ;
54 -> 55 ;
56 [label="last_session_creation_time <= 1349450688.0\nmse = 0.0\nsamples = 31\nvalue = 0.0"] ;
55 -> 56 ;
57 [label="mse = 0.0\nsamples = 29\nvalue = 0.0"] ;
56 -> 57 ;
58 [label="mse = 0.0\nsamples = 2\nvalue = 1.0"] ;
56 -> 58 ;
59 [label="creation_time <= 1650.0\nmse = 0.0\nsamples = 652\nvalue = 0.0"] ;
55 -> 59 ;
60 [label="creation_time <= 1638.0\nmse = 0.0\nsamples = 186\nvalue = 0.0"] ;
59 -> 60 ;
61 [label="last_session_creation_time <= 1349947264.0\nmse = 0.0\nsamples = 185\nvalue = 0.0"] ;
60 -> 61 ;
62 [label="mse = 0.0\nsamples = 179\nvalue = 0.0"] ;
61 -> 62 ;
63 [label="last_session_creation_time <= 1356240064.0\nmse = 0.2\nsamples = 6\nvalue = 0.2"] ;
61 -> 63 ;
64 [label="object_id <= 2208.5\nmse = 0.2\nsamples = 3\nvalue = 0.7"] ;
63 -> 64 ;
65 [label="mse = 0.0\nsamples = 1\nvalue = 0.0"] ;
64 -> 65 ;
66 [label="mse = 0.0\nsamples = 2\nvalue = 1.0"] ;
64 -> 66 ;
67 [label="mse = 0.0\nsamples = 3\nvalue = 0.0"] ;
63 -> 67 ;
68 [label="mse = 0.0\nsamples = 1\nvalue = 1.0"] ;
60 -> 68 ;
69 [label="mse = 0.0\nsamples = 466\nvalue = 0.0"] ;
59 -> 69 ;
70 [label="creation_time <= 4736.5\nmse = 0.0\nsamples = 65\nvalue = 0.0"] ;
54 -> 70 ;
71 [label="creation_source <= 1.0\nmse = 0.2\nsamples = 4\nvalue = 0.8"] ;
70 -> 71 ;
72 [label="mse = 0.0\nsamples = 1\nvalue = 0.0"] ;
71 -> 72 ;
73 [label="mse = 0.0\nsamples = 3\nvalue = 1.0"] ;
71 -> 73 ;
74 [label="mse = 0.0\nsamples = 61\nvalue = 0.0"] ;
70 -> 74 ;
75 [label="creation_time <= 2992.5\nmse = 0.1\nsamples = 200\nvalue = 0.1"] ;
9 -> 75 ;
76 [label="last_session_creation_time <= 1361923904.0\nmse = 0.1\nsamples = 122\nvalue = 0.1"] ;
75 -> 76 ;
77 [label="last_session_creation_time <= 1356883520.0\nmse = 0.1\nsamples = 114\nvalue = 0.1"] ;
76 -> 77 ;
78 [label="object_id <= 7772.5\nmse = 0.0\nsamples = 103\nvalue = 0.0"] ;
77 -> 78 ;
79 [label="mse = 0.0\nsamples = 66\nvalue = 0.0"] ;
78 -> 79 ;
80 [label="object_id <= 7796.5\nmse = 0.1\nsamples = 37\nvalue = 0.1"] ;
78 -> 80 ;
81 [label="mse = 0.0\nsamples = 1\nvalue = 1.0"] ;
80 -> 81 ;
82 [label="last_session_creation_time <= 1351405632.0\nmse = 0.1\nsamples = 36\nvalue = 0.1"] ;
80 -> 82 ;
83 [label="mse = 0.0\nsamples = 25\nvalue = 0.0"] ;
82 -> 83 ;
84 [label="creation_time <= 1785.0\nmse = 0.2\nsamples = 11\nvalue = 0.3"] ;
82 -> 84 ;
85 [label="mse = 0.0\nsamples = 3\nvalue = 1.0"] ;
84 -> 85 ;
86 [label="mse = 0.0\nsamples = 8\nvalue = 0.0"] ;
84 -> 86 ;
87 [label="opted_in_to_mailing_list <= 0.5\nmse = 0.2\nsamples = 11\nvalue = 0.3"] ;
77 -> 87 ;
88 [label="creation_time <= 2934.0\nmse = 0.1\nsamples = 7\nvalue = 0.1"] ;
87 -> 88 ;
89 [label="mse = 0.0\nsamples = 6\nvalue = 0.0"] ;
88 -> 89 ;
90 [label="mse = 0.0\nsamples = 1\nvalue = 1.0"] ;
88 -> 90 ;
91 [label="org_id <= 380.5\nmse = 0.2\nsamples = 4\nvalue = 0.8"] ;
87 -> 91 ;
92 [label="mse = 0.0\nsamples = 2\nvalue = 1.0"] ;
91 -> 92 ;
93 [label="mse = 0.0\nsamples = 2\nvalue = 0.0"] ;
91 -> 93 ;
94 [label="mse = 0.0\nsamples = 8\nvalue = 1.0"] ;
76 -> 94 ;
95 [label="mse = 0.0\nsamples = 78\nvalue = 0.0"] ;
75 -> 95 ;
96 [label="creation_time <= 5263.5\nmse = 0.1\nsamples = 35\nvalue = 0.2"] ;
8 -> 96 ;
97 [label="invited_by_user_id <= 6569.0\nmse = 0.2\nsamples = 8\nvalue = 0.8"] ;
96 -> 97 ;
98 [label="creation_source <= 0.5\nmse = 0.2\nsamples = 4\nvalue = 0.2"] ;
97 -> 98 ;
99 [label="mse = 0.0\nsamples = 1\nvalue = 1.0"] ;
98 -> 99 ;
100 [label="mse = 0.0\nsamples = 3\nvalue = 0.0"] ;
98 -> 100 ;
101 [label="mse = 0.0\nsamples = 4\nvalue = 1.0"] ;
97 -> 101 ;
102 [label="mse = 0.0\nsamples = 27\nvalue = 0.0"] ;
96 -> 102 ;
103 [label="creation_time <= 4800.5\nmse = 0.2\nsamples = 36\nvalue = 0.5"] ;
7 -> 103 ;
104 [label="creation_time <= 4717.0\nmse = 0.1\nsamples = 13\nvalue = 0.9"] ;
103 -> 104 ;
105 [label="mse = 0.0\nsamples = 10\nvalue = 1.0"] ;
104 -> 105 ;
106 [label="org_id <= 129.5\nmse = 0.2\nsamples = 3\nvalue = 0.6"] ;
104 -> 106 ;
107 [label="mse = 0.0\nsamples = 2\nvalue = 1.0"] ;
106 -> 107 ;
108 [label="mse = 0.0\nsamples = 1\nvalue = 0.0"] ;
106 -> 108 ;
109 [label="object_id <= 9631.5\nmse = 0.2\nsamples = 23\nvalue = 0.2"] ;
103 -> 109 ;
110 [label="invited_by_user_id <= 11388.5\nmse = 0.0\nsamples = 16\nvalue = 0.0"] ;
109 -> 110 ;
111 [label="mse = 0.0\nsamples = 15\nvalue = 0.0"] ;
110 -> 111 ;
112 [label="mse = 0.0\nsamples = 1\nvalue = 1.0"] ;
110 -> 112 ;
113 [label="org_id <= 126.5\nmse = 0.2\nsamples = 7\nvalue = 0.7"] ;
109 -> 113 ;
114 [label="creation_source <= 2.5\nmse = 0.1\nsamples = 5\nvalue = 0.9"] ;
113 -> 114 ;
115 [label="mse = 0.0\nsamples = 4\nvalue = 1.0"] ;
114 -> 115 ;
116 [label="mse = 0.0\nsamples = 1\nvalue = 0.0"] ;
114 -> 116 ;
117 [label="mse = 0.0\nsamples = 2\nvalue = 0.0"] ;
113 -> 117 ;
118 [label="mse = 0.0\nsamples = 764\nvalue = 0.0"] ;
6 -> 118 ;
119 [label="creation_time <= 5575.5\nmse = 0.1\nsamples = 32\nvalue = 0.9"] ;
5 -> 119 ;
120 [label="mse = 0.0\nsamples = 30\nvalue = 1.0"] ;
119 -> 120 ;
121 [label="invited_by_user_id <= 7298.5\nmse = 0.2\nsamples = 2\nvalue = 0.4"] ;
119 -> 121 ;
122 [label="mse = 0.0\nsamples = 1\nvalue = 0.0"] ;
121 -> 122 ;
123 [label="mse = 0.0\nsamples = 1\nvalue = 1.0"] ;
121 -> 123 ;
124 [label="last_session_creation_time <= 1387171904.0\nmse = 0.0\nsamples = 2364\nvalue = 0.0"] ;
4 -> 124 ;
125 [label="last_session_creation_time <= 1383950080.0\nmse = 0.0\nsamples = 1445\nvalue = 0.0"] ;
124 -> 125 ;
126 [label="mse = 0.0\nsamples = 1261\nvalue = 0.0"] ;
125 -> 126 ;
127 [label="last_session_creation_time <= 1384004928.0\nmse = 0.0\nsamples = 184\nvalue = 0.0"] ;
125 -> 127 ;
128 [label="mse = 0.0\nsamples = 1\nvalue = 1.0"] ;
127 -> 128 ;
129 [label="creation_time <= 6334.0\nmse = 0.0\nsamples = 183\nvalue = 0.0"] ;
127 -> 129 ;
130 [label="creation_time <= 6318.0\nmse = 0.2\nsamples = 4\nvalue = 0.2"] ;
129 -> 130 ;
131 [label="mse = 0.0\nsamples = 3\nvalue = 0.0"] ;
130 -> 131 ;
132 [label="mse = 0.0\nsamples = 1\nvalue = 1.0"] ;
130 -> 132 ;
133 [label="mse = 0.0\nsamples = 179\nvalue = 0.0"] ;
129 -> 133 ;
134 [label="creation_time <= 7807.0\nmse = 0.0\nsamples = 919\nvalue = 0.0"] ;
124 -> 134 ;
135 [label="last_session_creation_time <= 1394322752.0\nmse = 0.2\nsamples = 24\nvalue = 0.6"] ;
134 -> 135 ;
136 [label="creation_time <= 7178.5\nmse = 0.2\nsamples = 17\nvalue = 0.5"] ;
135 -> 136 ;
137 [label="org_id <= 2.5\nmse = 0.2\nsamples = 10\nvalue = 0.8"] ;
136 -> 137 ;
138 [label="mse = 0.0\nsamples = 1\nvalue = 0.0"] ;
137 -> 138 ;
139 [label="org_id <= 321.5\nmse = 0.1\nsamples = 9\nvalue = 0.9"] ;
137 -> 139 ;
140 [label="mse = 0.0\nsamples = 8\nvalue = 1.0"] ;
139 -> 140 ;
141 [label="mse = 0.0\nsamples = 1\nvalue = 0.0"] ;
139 -> 141 ;
142 [label="object_id <= 1155.0\nmse = 0.1\nsamples = 7\nvalue = 0.1"] ;
136 -> 142 ;
143 [label="mse = 0.0\nsamples = 1\nvalue = 1.0"] ;
142 -> 143 ;
144 [label="mse = 0.0\nsamples = 6\nvalue = 0.0"] ;
142 -> 144 ;
145 [label="mse = 0.0\nsamples = 7\nvalue = 1.0"] ;
135 -> 145 ;
146 [label="org_id <= 386.0\nmse = 0.0\nsamples = 895\nvalue = 0.0"] ;
134 -> 146 ;
147 [label="org_id <= 13.5\nmse = 0.0\nsamples = 865\nvalue = 0.0"] ;
146 -> 147 ;
148 [label="org_id <= 12.5\nmse = 0.0\nsamples = 154\nvalue = 0.0"] ;
147 -> 148 ;
149 [label="last_session_creation_time <= 1396752896.0\nmse = 0.0\nsamples = 147\nvalue = 0.0"] ;
148 -> 149 ;
150 [label="mse = 0.0\nsamples = 107\nvalue = 0.0"] ;
149 -> 150 ;
151 [label="creation_time <= 9660.5\nmse = 0.1\nsamples = 40\nvalue = 0.1"] ;
149 -> 151 ;
152 [label="invited_by_user_id <= 9392.0\nmse = 0.1\nsamples = 3\nvalue = 0.8"] ;
151 -> 152 ;
153 [label="mse = 0.0\nsamples = 2\nvalue = 1.0"] ;
152 -> 153 ;
154 [label="mse = 0.0\nsamples = 1\nvalue = 0.0"] ;
152 -> 154 ;
155 [label="mse = 0.0\nsamples = 37\nvalue = 0.0"] ;
151 -> 155 ;
156 [label="object_id <= 1474.0\nmse = 0.2\nsamples = 7\nvalue = 0.3"] ;
148 -> 156 ;
157 [label="mse = 0.0\nsamples = 1\nvalue = 1.0"] ;
156 -> 157 ;
158 [label="mse = 0.0\nsamples = 6\nvalue = 0.0"] ;
156 -> 158 ;
159 [label="creation_time <= 7999.5\nmse = 0.0\nsamples = 711\nvalue = 0.0"] ;
147 -> 159 ;
160 [label="creation_time <= 7956.0\nmse = 0.1\nsamples = 6\nvalue = 0.1"] ;
159 -> 160 ;
161 [label="mse = 0.0\nsamples = 5\nvalue = 0.0"] ;
160 -> 161 ;
162 [label="mse = 0.0\nsamples = 1\nvalue = 1.0"] ;
160 -> 162 ;
163 [label="creation_source <= 0.5\nmse = 0.0\nsamples = 705\nvalue = 0.0"] ;
159 -> 163 ;
164 [label="object_id <= 10311.5\nmse = 0.0\nsamples = 110\nvalue = 0.0"] ;
163 -> 164 ;
165 [label="last_session_creation_time <= 1398571584.0\nmse = 0.0\nsamples = 96\nvalue = 0.0"] ;
164 -> 165 ;
166 [label="mse = 0.0\nsamples = 86\nvalue = 0.0"] ;
165 -> 166 ;
167 [label="creation_time <= 9488.0\nmse = 0.1\nsamples = 10\nvalue = 0.1"] ;
165 -> 167 ;
168 [label="mse = 0.0\nsamples = 1\nvalue = 1.0"] ;
167 -> 168 ;
169 [label="mse = 0.0\nsamples = 9\nvalue = 0.0"] ;
167 -> 169 ;
170 [label="object_id <= 10377.5\nmse = 0.1\nsamples = 14\nvalue = 0.1"] ;
164 -> 170 ;
171 [label="mse = 0.0\nsamples = 1\nvalue = 1.0"] ;
170 -> 171 ;
172 [label="mse = 0.0\nsamples = 13\nvalue = 0.0"] ;
170 -> 172 ;
173 [label="last_session_creation_time <= 1398456256.0\nmse = 0.0\nsamples = 595\nvalue = 0.0"] ;
163 -> 173 ;
174 [label="mse = 0.0\nsamples = 494\nvalue = 0.0"] ;
173 -> 174 ;
175 [label="last_session_creation_time <= 1398472064.0\nmse = 0.0\nsamples = 101\nvalue = 0.0"] ;
173 -> 175 ;
176 [label="mse = 0.0\nsamples = 1\nvalue = 1.0"] ;
175 -> 176 ;
177 [label="creation_time <= 9389.0\nmse = 0.0\nsamples = 100\nvalue = 0.0"] ;
175 -> 177 ;
178 [label="creation_time <= 9219.0\nmse = 0.1\nsamples = 4\nvalue = 0.1"] ;
177 -> 178 ;
179 [label="mse = 0.0\nsamples = 3\nvalue = 0.0"] ;
178 -> 179 ;
180 [label="mse = 0.0\nsamples = 1\nvalue = 1.0"] ;
178 -> 180 ;
181 [label="mse = 0.0\nsamples = 96\nvalue = 0.0"] ;
177 -> 181 ;
182 [label="last_session_creation_time <= 1399214976.0\nmse = 0.1\nsamples = 30\nvalue = 0.2"] ;
146 -> 182 ;
183 [label="creation_time <= 8280.0\nmse = 0.0\nsamples = 27\nvalue = 0.0"] ;
182 -> 183 ;
184 [label="mse = 0.0\nsamples = 1\nvalue = 1.0"] ;
183 -> 184 ;
185 [label="mse = 0.0\nsamples = 26\nvalue = 0.0"] ;
183 -> 185 ;
186 [label="object_id <= 6724.5\nmse = 0.1\nsamples = 3\nvalue = 0.8"] ;
182 -> 186 ;
187 [label="mse = 0.0\nsamples = 1\nvalue = 0.0"] ;
186 -> 187 ;
188 [label="mse = 0.0\nsamples = 2\nvalue = 1.0"] ;
186 -> 188 ;
189 [label="creation_time <= 10246.5\nmse = 0.2\nsamples = 135\nvalue = 0.3"] ;
1 -> 189 ;
190 [label="creation_time <= 7427.5\nmse = 0.2\nsamples = 42\nvalue = 0.8"] ;
189 -> 190 ;
191 [label="mse = 0.0\nsamples = 18\nvalue = 1.0"] ;
190 -> 191 ;
192 [label="object_id <= 5034.5\nmse = 0.2\nsamples = 24\nvalue = 0.6"] ;
190 -> 192 ;
193 [label="creation_source <= 2.5\nmse = 0.2\nsamples = 5\nvalue = 0.2"] ;
192 -> 193 ;
194 [label="mse = 0.0\nsamples = 4\nvalue = 0.0"] ;
193 -> 194 ;
195 [label="mse = 0.0\nsamples = 1\nvalue = 1.0"] ;
193 -> 195 ;
196 [label="org_id <= 5.5\nmse = 0.2\nsamples = 19\nvalue = 0.7"] ;
192 -> 196 ;
197 [label="mse = 0.0\nsamples = 1\nvalue = 0.0"] ;
196 -> 197 ;
198 [label="last_session_creation_time <= 1400575808.0\nmse = 0.2\nsamples = 18\nvalue = 0.8"] ;
196 -> 198 ;
199 [label="last_session_creation_time <= 1399976320.0\nmse = 0.1\nsamples = 16\nvalue = 0.9"] ;
198 -> 199 ;
200 [label="org_id <= 211.5\nmse = 0.2\nsamples = 4\nvalue = 0.5"] ;
199 -> 200 ;
201 [label="mse = 0.0\nsamples = 2\nvalue = 1.0"] ;
200 -> 201 ;
202 [label="mse = 0.0\nsamples = 2\nvalue = 0.0"] ;
200 -> 202 ;
203 [label="invited_by_user_id <= 11576.0\nmse = 0.0\nsamples = 12\nvalue = 1.0"] ;
199 -> 203 ;
204 [label="mse = 0.0\nsamples = 11\nvalue = 1.0"] ;
203 -> 204 ;
205 [label="mse = 0.0\nsamples = 1\nvalue = 0.0"] ;
203 -> 205 ;
206 [label="mse = 0.0\nsamples = 2\nvalue = 0.0"] ;
198 -> 206 ;
207 [label="mse = 0.0\nsamples = 93\nvalue = 0.0"] ;
189 -> 207 ;
208 [label="creation_time <= 10127.5\nmse = 0.2\nsamples = 784\nvalue = 0.7"] ;
0 -> 208 [labeldistance=2.5, labelangle=-45, headlabel="False"] ;
209 [label="creation_time <= 9638.0\nmse = 0.0\nsamples = 545\nvalue = 1.0"] ;
208 -> 209 ;
210 [label="creation_time <= 8208.0\nmse = 0.0\nsamples = 507\nvalue = 1.0"] ;
209 -> 210 ;
211 [label="invited_by_user_id <= 11764.5\nmse = 0.0\nsamples = 436\nvalue = 1.0"] ;
210 -> 211 ;
212 [label="mse = 0.0\nsamples = 428\nvalue = 1.0"] ;
211 -> 212 ;
213 [label="last_session_creation_time <= 1401627072.0\nmse = 0.1\nsamples = 8\nvalue = 0.9"] ;
211 -> 213 ;
214 [label="creation_time <= 6959.0\nmse = 0.2\nsamples = 2\nvalue = 0.5"] ;
213 -> 214 ;
215 [label="mse = 0.0\nsamples = 1\nvalue = 1.0"] ;
214 -> 215 ;
216 [label="mse = 0.0\nsamples = 1\nvalue = 0.0"] ;
214 -> 216 ;
217 [label="mse = 0.0\nsamples = 6\nvalue = 1.0"] ;
213 -> 217 ;
218 [label="object_id <= 11635.5\nmse = 0.1\nsamples = 71\nvalue = 0.9"] ;
210 -> 218 ;
219 [label="creation_time <= 8234.0\nmse = 0.1\nsamples = 69\nvalue = 0.9"] ;
218 -> 219 ;
220 [label="mse = 0.0\nsamples = 1\nvalue = 0.0"] ;
219 -> 220 ;
221 [label="object_id <= 510.0\nmse = 0.0\nsamples = 68\nvalue = 0.9"] ;
219 -> 221 ;
222 [label="last_session_creation_time <= 1401124800.0\nmse = 0.2\nsamples = 6\nvalue = 0.8"] ;
221 -> 222 ;
223 [label="mse = 0.0\nsamples = 1\nvalue = 0.0"] ;
222 -> 223 ;
224 [label="mse = 0.0\nsamples = 5\nvalue = 1.0"] ;
222 -> 224 ;
225 [label="creation_time <= 9508.0\nmse = 0.0\nsamples = 62\nvalue = 1.0"] ;
221 -> 225 ;
226 [label="creation_source <= 3.5\nmse = 0.0\nsamples = 58\nvalue = 1.0"] ;
225 -> 226 ;
227 [label="mse = 0.0\nsamples = 47\nvalue = 1.0"] ;
226 -> 227 ;
228 [label="org_id <= 254.5\nmse = 0.1\nsamples = 11\nvalue = 0.9"] ;
226 -> 228 ;
229 [label="mse = 0.0\nsamples = 7\nvalue = 1.0"] ;
228 -> 229 ;
230 [label="object_id <= 5369.5\nmse = 0.2\nsamples = 4\nvalue = 0.5"] ;
228 -> 230 ;
231 [label="mse = 0.0\nsamples = 2\nvalue = 0.0"] ;
230 -> 231 ;
232 [label="mse = 0.0\nsamples = 2\nvalue = 1.0"] ;
230 -> 232 ;
233 [label="object_id <= 7685.5\nmse = 0.1\nsamples = 4\nvalue = 0.8"] ;
225 -> 233 ;
234 [label="mse = 0.0\nsamples = 3\nvalue = 1.0"] ;
233 -> 234 ;
235 [label="mse = 0.0\nsamples = 1\nvalue = 0.0"] ;
233 -> 235 ;
236 [label="mse = 0.0\nsamples = 2\nvalue = 0.0"] ;
218 -> 236 ;
237 [label="object_id <= 9143.5\nmse = 0.2\nsamples = 38\nvalue = 0.6"] ;
209 -> 237 ;
238 [label="last_session_creation_time <= 1401366336.0\nmse = 0.2\nsamples = 27\nvalue = 0.4"] ;
237 -> 238 ;
239 [label="mse = 0.0\nsamples = 8\nvalue = 0.0"] ;
238 -> 239 ;
240 [label="opted_in_to_mailing_list <= 0.5\nmse = 0.2\nsamples = 19\nvalue = 0.6"] ;
238 -> 240 ;
241 [label="creation_time <= 10037.5\nmse = 0.2\nsamples = 14\nvalue = 0.4"] ;
240 -> 241 ;
242 [label="last_session_creation_time <= 1401450304.0\nmse = 0.2\nsamples = 12\nvalue = 0.3"] ;
241 -> 242 ;
243 [label="mse = 0.0\nsamples = 1\nvalue = 1.0"] ;
242 -> 243 ;
244 [label="org_id <= 3.0\nmse = 0.2\nsamples = 11\nvalue = 0.2"] ;
242 -> 244 ;
245 [label="mse = 0.0\nsamples = 1\nvalue = 1.0"] ;
244 -> 245 ;
246 [label="creation_time <= 9942.5\nmse = 0.1\nsamples = 10\nvalue = 0.2"] ;
244 -> 246 ;
247 [label="object_id <= 5570.0\nmse = 0.2\nsamples = 5\nvalue = 0.3"] ;
246 -> 247 ;
248 [label="mse = 0.0\nsamples = 2\nvalue = 0.0"] ;
247 -> 248 ;
249 [label="last_session_creation_time <= 1401541696.0\nmse = 0.2\nsamples = 3\nvalue = 0.7"] ;
247 -> 249 ;
250 [label="mse = 0.0\nsamples = 1\nvalue = 0.0"] ;
249 -> 250 ;
251 [label="mse = 0.0\nsamples = 2\nvalue = 1.0"] ;
249 -> 251 ;
252 [label="mse = 0.0\nsamples = 5\nvalue = 0.0"] ;
246 -> 252 ;
253 [label="mse = 0.0\nsamples = 2\nvalue = 1.0"] ;
241 -> 253 ;
254 [label="mse = 0.0\nsamples = 5\nvalue = 1.0"] ;
240 -> 254 ;
255 [label="org_id <= 8.5\nmse = 0.1\nsamples = 11\nvalue = 0.9"] ;
237 -> 255 ;
256 [label="mse = 0.0\nsamples = 1\nvalue = 0.0"] ;
255 -> 256 ;
257 [label="mse = 0.0\nsamples = 10\nvalue = 1.0"] ;
255 -> 257 ;
258 [label="creation_time <= 11113.0\nmse = 0.1\nsamples = 239\nvalue = 0.1"] ;
208 -> 258 ;
259 [label="object_id <= 2873.5\nmse = 0.2\nsamples = 53\nvalue = 0.3"] ;
258 -> 259 ;
260 [label="creation_time <= 10758.5\nmse = 0.2\nsamples = 9\nvalue = 0.7"] ;
259 -> 260 ;
261 [label="mse = 0.0\nsamples = 6\nvalue = 1.0"] ;
260 -> 261 ;
262 [label="mse = 0.0\nsamples = 3\nvalue = 0.0"] ;
260 -> 262 ;
263 [label="object_id <= 11653.5\nmse = 0.2\nsamples = 44\nvalue = 0.2"] ;
259 -> 263 ;
264 [label="org_id <= 397.5\nmse = 0.1\nsamples = 42\nvalue = 0.2"] ;
263 -> 264 ;
265 [label="invited_by_user_id <= 1067.0\nmse = 0.1\nsamples = 40\nvalue = 0.1"] ;
264 -> 265 ;
266 [label="mse = 0.0\nsamples = 1\nvalue = 1.0"] ;
265 -> 266 ;
267 [label="last_session_creation_time <= 1401021696.0\nmse = 0.1\nsamples = 39\nvalue = 0.1"] ;
265 -> 267 ;
268 [label="mse = 0.0\nsamples = 16\nvalue = 0.0"] ;
267 -> 268 ;
269 [label="org_id <= 198.0\nmse = 0.2\nsamples = 23\nvalue = 0.2"] ;
267 -> 269 ;
270 [label="object_id <= 5603.5\nmse = 0.2\nsamples = 11\nvalue = 0.4"] ;
269 -> 270 ;
271 [label="mse = 0.0\nsamples = 4\nvalue = 0.0"] ;
270 -> 271 ;
272 [label="last_session_creation_time <= 1401252032.0\nmse = 0.2\nsamples = 7\nvalue = 0.7"] ;
270 -> 272 ;
273 [label="mse = 0.0\nsamples = 2\nvalue = 1.0"] ;
272 -> 273 ;
274 [label="object_id <= 6472.5\nmse = 0.2\nsamples = 5\nvalue = 0.5"] ;
272 -> 274 ;
275 [label="mse = 0.0\nsamples = 1\nvalue = 1.0"] ;
274 -> 275 ;
276 [label="last_session_creation_time <= 1401857408.0\nmse = 0.2\nsamples = 4\nvalue = 0.2"] ;
274 -> 276 ;
277 [label="mse = 0.0\nsamples = 3\nvalue = 0.0"] ;
276 -> 277 ;
278 [label="mse = 0.0\nsamples = 1\nvalue = 1.0"] ;
276 -> 278 ;
279 [label="mse = 0.0\nsamples = 12\nvalue = 0.0"] ;
269 -> 279 ;
280 [label="mse = 0.0\nsamples = 2\nvalue = 1.0"] ;
264 -> 280 ;
281 [label="mse = 0.0\nsamples = 2\nvalue = 1.0"] ;
263 -> 281 ;
282 [label="last_session_creation_time <= 1401917888.0\nmse = 0.0\nsamples = 186\nvalue = 0.0"] ;
258 -> 282 ;
283 [label="creation_time <= 11502.5\nmse = 0.0\nsamples = 183\nvalue = 0.0"] ;
282 -> 283 ;
284 [label="creation_time <= 11491.0\nmse = 0.1\nsamples = 24\nvalue = 0.1"] ;
283 -> 284 ;
285 [label="object_id <= 1718.0\nmse = 0.0\nsamples = 23\nvalue = 0.0"] ;
284 -> 285 ;
286 [label="object_id <= 991.0\nmse = 0.1\nsamples = 4\nvalue = 0.2"] ;
285 -> 286 ;
287 [label="mse = 0.0\nsamples = 3\nvalue = 0.0"] ;
286 -> 287 ;
288 [label="mse = 0.0\nsamples = 1\nvalue = 1.0"] ;
286 -> 288 ;
289 [label="mse = 0.0\nsamples = 19\nvalue = 0.0"] ;
285 -> 289 ;
290 [label="mse = 0.0\nsamples = 1\nvalue = 1.0"] ;
284 -> 290 ;
291 [label="mse = 0.0\nsamples = 159\nvalue = 0.0"] ;
283 -> 291 ;
292 [label="invited_by_user_id <= 4319.0\nmse = 0.2\nsamples = 3\nvalue = 0.4"] ;
282 -> 292 ;
293 [label="mse = 0.0\nsamples = 1\nvalue = 1.0"] ;
292 -> 293 ;
294 [label="mse = 0.0\nsamples = 2\nvalue = 0.0"] ;
292 -> 294 ;
}